0.42723702963971977,0.09634750363348105,-0.45381403104255547,0.3619331040270567,0.468954101802063,-0.18621321560201495,-0.3789278971218074,-0.11464065875633991,-0.09130804245626581,0.09878449963421476,0.1867602269056491,-0.09033276750280395,0.46708064520749903,0.09120238556851193,-0.14810158203735838,0.04845568590949057
-0.11398193320848624,1.3654336794805078,0.2240991310186997,-0.2245147377895282,-0.6176903660408135,-0.08384892465586147,-0.17022243396315448,-0.17588839465671588,-1.2420688903926753,-0.327159982739311,-0.3542365211269096,1.1283724551443948,-0.359307826107787,0.6459352843006829,0.4236753859820823,-0.5919973902214362
0.028370358808462465,-0.41838765544356116,-0.3845059814161683,0.3622045628917,-0.3644717947351702,-0.09120957307157168,-0.11523074633171404,-0.13918942042312452,0.06417146638474486,-0.6697409078697762,-0.6934329527165883,-0.4350078498607861,0.1132306735131251,0.8278838650112686,1.080284816451108,0.24817375632457342
-0.14942002656878886,0.57947945441093,0.2702026736281833,0.14978746922181077,0.661731390446262,0.040024262618152416,0.43688472623947605,-1.6663235722168224,0.2139276396092711,-0.038074641115908074,0.10209480828040364,-1.2459683627112461,0.6854841590355355,0.3553867044948813,-0.025576769739515677,-0.5653405792069762
-0.5645500651725879,-0.583390050406667,-0.500585285502416,-0.29256109413242576,-0.42134178630907454,-0.1219226435007683,0.5379164834873101,-0.14449330146360864,-0.3609119181986686,-0.15157712048728933,0.2547390398855279,-0.49022664419264644,-0.12160029702921787,-0.09575918493320822,-0.22102423549080202,0.1550250434124706
-0.1944706804000419,0.07802339621947163,-0.1906086577634447,0.11326672823820164,-0.14524682471979422,0.30088645062762376,-0.33116138515318894,-0.1809940421000204,0.1596108138139996,0.6185808425048176,0.6102899621332416,0.4441775676450648,0.20396877306122546,-0.7989298445594282,-0.9145124822375523,-0.06792094548091915
0.6488055312696895,-0.21183545922316338,0.18706686306540093,0.4369378751231637,-0.06102239644549406,-0.46137756932513113,-0.3092408945956259,1.5378882863145968,0.7149532490692246,0.3300022436402174,0.12474417600415087,0.601302804372808,-0.2092592018673191,-0.27659995238745044,-0.4085488321971697,0.04588860148147233
-0.04021928162159002,1.0673717103166092,1.2370781423815367,-0.6741706544645798,-0.32081008343700973,-0.4450881906224224,0.22042028516734039,0.9180547729386004,0.5313691988207647,0.03419085230823509,-0.46997519625887735,0.5445920114226335,-0.23910782377412707,-0.11880861596215304,0.1544398684135039,0.6933871834376693
