-0.003306736890846844,-0.15728518586413248,-0.14219387577009904,0.20434661729593892,0.3514308513209113,-0.5518719048070999,0.13263443349736065,0.26783672863312574,0.4631651104992231,0.5579329775263523,-0.11966582230556351,-0.35349227989953297,-0.3496999327554606,-0.19870346741564018,0.2045993569180732,0.329899350398205,-0.1440242928613985,-0.27258383379742557,-0.1899050744811431,0.15628271303427677,0.10345238905848274,-0.39593660001478354,-0.06203536666803997,-0.5455628385006872,-0.6466926283004064,-0.2848696662704396,-0.04050284357540924,-0.39594370102212534,0.3341212616693932,0.39127510783606373,-0.30912450883792814,0.04452678037743362,0.16378718937731002,0.291998093607543,-0.4532848763918446,-0.4787451679792324
-0.287346668416784,-0.1242939281799506,-0.15833550541478023,0.3325963131636155,-0.30548666699625115,0.048636210220891644,-0.3341157152675305,-0.22025993048159861,-0.22619255601128543,-0.2921001251277846,0.5105078411967898,0.015233299249902561,0.19552102741437447,0.29881704832527267,0.08298252564645864,0.27726087157940205,0.39510468181286784,0.23817685872643987,-0.22521139941043158,0.15394113697459674,-0.09704831979294562,0.46891859309480455,0.2781606768453556,-0.3565935988665614,0.13442738307500116,0.23650832698158455,-0.20708547505363537,-0.05242018223014825,-0.22974699670051582,0.2775479258437493,0.1151445846046604,-0.022023591014066653,-0.4868478243260358,-0.2896647623876083,-0.18135558190930864,-0.11116339317037019
0.13937715697194208,0.06822379526977079,-0.276767345993652,0.18198263263424863,-0.06061934820610785,-0.050374472813149475,-0.39927761105382525,0.09880230129185666,-0.037682790952979224,-0.21667653828555583,-0.29058392411565953,-0.18815744185310646,-0.46749002899058006,-0.14591472240144193,0.2731743599137317,0.4209954215419132,-0.3597916654072401,-0.587076123288617,0.16982355417942063,-0.29379915503680903,0.5864681799115543,-0.034792102965214546,0.06051193890229794,-0.08475989425685662,-0.22706568320151166,0.337727576824483,0.2491713997385,0.43796697535918266,0.15621819965581135,-0.34537966485816746,-0.0427175503445193,0.07123096619839808,-0.14763459763483727,-0.23088569120172397,0.37528559221712093,-0.15882181165387144
-0.4055950853269891,0.3036732269136226,0.6388411940760695,0.41368907752505096,0.38896867318539646,0.39989229666065024,-0.1823322626970204,0.25491066414463665,0.26577329298237756,-0.17180645945942563,0.3336140802936007,-0.09710225088265226,-0.12712042290453623,-0.40404324753763027,-0.46137654935639877,0.17073005584516093,-0.37406593065094557,-0.5569402733389114,0.08902089788460754,-0.05600254682373272,0.3864456814042441,-0.760663812927087,-0.23452773196887883,0.049665879679880356,0.01930009957275755,-0.11365313954979352,-0.03761689216242811,-0.06144978956879678,-0.054836569408306696,-0.1165603731679116,-0.4916949128696471,-0.21312342453288552,0.44968786998422766,0.37545835078127593,-0.13564873923736914,0.024283196454631145
0.0334349394220057,0.06910975159654927,-0.0865565427789932,-0.3455545638081839,-0.05724074244500357,0.009553642857851645,0.3086771896141522,-0.43295902945306136,0.14820297660299017,-0.12500712310757742,-0.14763636867137356,0.42215906488278826,-0.13592311996850018,-0.06563520916757694,0.16661204435531554,0.3631832139573878,-0.08813838880799744,-0.14335341011089428,-0.38221672385446764,-0.09704617911865192,0.658463115452575,0.47863012311486325,0.29401520516413465,0.05641576878870975,-0.017179952170513275,-0.3759275388207191,0.42987185058451877,0.17027002063653043,-0.4228366918484317,-0.0259679545351028,-0.01106888794793904,-0.7660172756737345,-0.12101230434817482,-0.376199752741173,-0.5891760001227249,0.28130184560931465
0.06637536786021102,-0.002787677221650938,0.06438035318829434,0.09574948674324828,0.10185127983757696,0.24335501168593543,0.21742543389647406,-0.23285655184245016,0.2522467245545985,0.15680833535569882,-0.006886479355563005,-0.014837239038915572,-0.4628752650764976,-0.1120562560519346,-0.5128849638604281,0.5971122181927188,-0.07012099268690448,0.09246388016527722,0.007095625167148697,-0.6138414491960881,0.4538870284939828,0.40191969141745837,0.04479233229214257,-0.10849997796700765,-0.20637928112280451,-0.531108670611849,0.23977595759158898,-0.0304486187861222,-0.26471737018415725,-0.09045374000392063,0.5367654066925206,-0.24300204948538628,-0.10592756422761625,-0.08196573615145937,0.35109473736928204,0.30458962747722385
0.20610263723198877,-0.0756403680766469,-0.06403262776283879,0.4765913136441185,-0.07971477475562544,-0.06544939595244521,-0.05366634758828996,0.11388284225804118,-0.011805603271323628,0.451706646649828,0.20726043619634552,-0.36570264967322924,0.09496297323071215,0.46445086573224453,0.35702583256805903,0.5315382148980387,0.4068603484937275,-0.2613228020101051,-0.41648954826694734,-0.056399312014232206,-0.4149445286461863,0.4932322235761695,-0.005185871317827302,0.35792476805087464,-0.15325046842539294,0.37727916434285397,-0.23109583102640144,0.3339338713716022,0.05519865003442363,-0.345910148153797,-0.2650563069985653,0.11683691765797767,-0.13592622868903437,-0.08232050646089457,-0.06275320275482453,-0.09109281872258157
0.10641000039317966,-0.06542803668069727,0.4730121800252794,-0.13872500074108918,0.16943133537501426,-0.3733827653422865,0.01950302844309037,0.3959041721136412,0.3538165235286041,-0.42250865178506375,-0.0002009262317749226,0.10659450259860623,0.059543691478207414,0.13554119259986125,0.19998014061447544,-0.12349416349510275,-0.4152470419864282,-0.03331215081230503,-0.36019202984524706,-0.7379764792880239,-0.09914157913404864,-0.6334262009208655,-0.6944826575631438,0.006076899556087348,0.17553408207126198,-0.1224916962130729,0.12148338531367586,0.3693958967495053,0.03696473753571461,0.2017100737053395,-0.32022341341874644,0.5462275891970687,-0.19210164818296577,0.07991372111700745,0.11477421070618926,0.16754098624313585
0.008598052397701684,-0.13084645772376066,0.08681366849371425,-0.033648513862110714,0.19402571886598655,-0.17741575625815528,-0.016796931304663622,0.23113257319455974,0.33967744507935477,0.3671933175716457,0.27046521596439893,0.04794504045833781,0.24296747235403784,0.01938739073238973,0.2894413325882306,0.4064246143191799,-0.3260007476154653,-0.471560490692089,-0.28965142457381315,0.11865245565405619,0.0685788157418652,0.3956829402857695,-0.18465169942622853,0.4611569184671351,-0.28321033032055093,0.010590194729303505,-0.05265501096952587,-0.4902095620324077,-0.06837777268622794,-0.8480655169871845,-0.3184010873165792,0.36899668750587983,0.6464879073522465,0.19911725680580425,0.5051153398925112,0.31751889274708583
-0.027589703511868933,-0.3335683682937557,0.11861270293426185,0.1959976860296981,-0.14880928179119016,-0.23006998683241855,-0.05118551644980495,-0.2487773241905907,-0.2476806214542486,-0.39432227593055347,-0.27460170041869314,0.5379960395379361,-0.45188759027712655,0.06291095778800475,0.14229590608879647,-0.005322022176782405,-0.48555897803471515,0.201530950598677,0.14072184328518225,-0.13523101132168422,-0.3154458016962872,-0.5509508437994316,0.04327937166984688,-0.31998350038772505,0.3230616863874839,0.24494308377280546,-0.026173361603507344,-0.11433427387098091,0.16202089885540863,0.7514925673465188,-0.23904514558687215,-0.003371361312110669,-0.3192145683315505,-0.5051937246347878,-0.43909101670494166,-0.017424041229334438
-0.24846096860711675,0.35575895412456104,0.25178068747834176,-0.30758226342440903,0.06882376326377405,0.36593166437496294,-0.48975910629675246,-0.07383344504821175,0.23541089712455984,-0.32709775066383484,0.2446105705260534,-0.22105171977882762,-0.0070685933831543465,-0.33418294058743414,0.15522527877239578,-0.19491311539979883,-0.01051936744433179,-0.06197883488299763,-0.46944802344903624,0.23875344457374942,-0.017857715609698743,0.20781672312834365,-0.34983650725128634,0.1886048782079015,0.22576178727604362,0.5593638079591632,-0.17271959623223937,0.17781887296935245,0.16806874149379902,0.6281525576431162,-0.36961399460225386,-0.19864455368947226,0.01889663585500072,-0.4090659130605765,0.004600774988685424,-0.23686349743793542
-0.4280831703438324,-0.407518418999723,-0.4709923582011522,-0.603005201348222,-0.41964719440581283,0.14750732776920145,-0.03866414101199832,-0.0037730662979493105,0.3183362598731136,0.16667462958482276,0.012263660951534071,-0.4314392966186728,-0.09950263377646619,0.39558638080479364,-0.1099650623525937,-0.13068829580081848,0.13840550801694673,0.2007773272451041,0.3534854076235349,0.03738146457470551,-0.06309002279303552,-0.5324168886102826,-0.38976283417984064,0.026061218194187136,-0.3087723887171317,-0.09169585061385245,0.30765954333241724,0.06748988605029206,-0.5263576059092806,0.053924275079623274,-0.4127923688997221,0.3958024246580735,0.33548608307675415,-0.3257873990562316,0.14611327967904394,-0.22883588108329528
0.1958539528939725,0.3414252199117483,0.04238974048752159,0.19308270670218036,-0.10125988701457246,-0.4749041327658566,0.19816831271897062,0.43968409856180674,-0.22845162533846164,0.31404470469899765,0.16335942553007027,0.43395818389301605,0.12814271552085715,-0.394147866631871,0.2492675710868279,0.21362011165948513,-0.46249248639715484,0.26688338961258146,-0.14159808514013622,0.3001548416277701,0.6375099739640064,-0.04711699452155062,0.2624969594142407,-0.25712536973927463,-0.32617753124221566,0.0626357840472425,-0.4578756749805915,0.3567766134639669,-0.13714864287555023,0.2626921198227376,-0.31078695015702945,-0.41895143863628087,-0.47538355546978056,-0.48190083026173863,0.013105580166240178,0.4032314162048494
-0.33542559380415266,0.3067830187425599,0.07700084629176847,0.20473014305816686,-0.6235814897709075,0.31310398597914996,0.00818354531480461,0.09771592641191117,-0.38303679509717575,0.11278851543930259,0.13835673363666814,-0.18571430900512972,0.03596103041229617,0.2689208915449964,-0.3819693719017951,0.5178154496873142,0.050091168858134076,-0.21930239148008482,-0.09603419966735856,0.36668749887712976,-0.08271014763977165,0.02491604041510237,-0.15753675208540366,0.015279903768471426,0.19201226189939916,0.07233832150434576,-0.21334345408436525,0.16664932803659865,-0.03233609518713527,0.04658415758852583,-0.18353509543214766,0.573533527286268,-0.17610976809025783,0.1878775270185775,0.41509558404103936,0.11521062580219683
-0.34153212698103996,-0.5451210638081668,-0.714659390555822,-0.35338367800793635,-0.19596021199877608,-0.5512935831950299,-0.067236676306061,-0.7829522431084651,0.19426990300223265,-0.28449806967390356,0.2025728447423378,-0.027361806847792935,0.08135749119065891,-0.13359745067544207,0.28462712635197074,-0.10029111671111637,0.07158451144449382,-0.5021185924429311,0.41008705043633087,-0.09978968942933067,0.3664402210934026,0.5154450760678946,0.30232368996356784,-0.2463136090541961,-0.3399351604841453,-0.03424099942159434,0.3254001360734422,0.16720510555147913,0.015542481677055991,-0.5933593237984959,0.06516246808217088,0.109494940455835,0.6649832312149401,0.3208646173202575,0.36871014921286294,0.22850423381835558
0.135521532642257,0.09786686149114286,-0.47124270179517486,-0.4292060065585777,-0.03665882354138921,-0.3624673012823016,-0.27041464328746706,0.23335483663990755,0.08757110186688545,-0.06092508094342342,0.3042933563966775,0.173792649260975,0.080002522603021,0.241095933088708,-0.05105696262696164,-0.1760232014067166,0.09900206562426854,0.31057299565250235,0.12414792902060702,-0.8700296029774925,-0.5886044790168385,-0.22537403177572415,-0.3912384819884481,-0.23883931921821522,0.28529660637077897,0.19311696873871517,-0.4454001099232506,0.34896510159231303,0.16304674118803084,0.15084650393853055,0.023272619561978056,0.19152205019871452,0.22667237355668116,0.12768082199952865,0.4766394552163506,0.7084957580196238
-0.38938768009466396,0.022335897947652946,0.0581032865597936,-0.3665981387761258,-0.49502428170948565,-0.05324265045904338,-0.06811675443234601,0.3161694277805347,0.30643930961908483,0.4735400876447937,-0.3923789567938204,-0.46026273200709455,-0.1138861734732979,-0.4215743785652386,0.6136371676929667,-0.3614657354854528,0.2966436987423797,-0.3871229483305535,0.1848677081961478,0.39631245991725894,0.12615024816400944,0.08771814032022289,0.0016514205789989842,0.3568600588985691,-0.5256547193858184,-0.3964915144922393,0.1717377673934201,0.18089457940759565,0.08721714105010418,0.16794971489135982,-0.0494749367897298,0.18572099621911584,-0.3782529901722501,-0.36562882828076304,0.1018119639064513,0.3633005129430458
-0.005088723925517536,0.1924978690346236,0.5688416327570924,0.46977460164924856,0.5671535550341724,-0.3945272016074728,0.11623154927561986,0.03986084951722009,0.3382966524584381,-0.25909879291807947,0.13502471064547014,-0.6297595148204544,0.008492605508676702,-0.0886648316231962,-0.06948545776929142,-0.40401969501310775,-0.3426058955026182,-0.3798747729827553,0.0896456265813562,-0.3165008826498722,-0.3358165338251644,-0.49819157738871156,0.29955839867355605,-0.6610007642218481,-0.16733428035243406,-0.1653584425018443,0.11535038031932975,0.010159551750094416,0.07014065994802211,0.04864793744451662,-0.007927541813664108,0.5310509190688731,0.4119362135551916,0.5157065623819393,0.25961210554321174,-0.4526626623010941
-0.4216824054673523,0.143064830470098,0.7773119922012884,0.22454672736404668,0.5291903170183577,0.1328043523768501,-0.019645654874908092,-0.15718870339795354,-0.36017810738781725,0.549077289682176,0.18421781501346812,0.3149944672977952,-0.04429299233570404,0.15923881066880746,0.5012241557228602,0.2780695493529945,0.4222500362529495,0.017570218567610523,0.0900468584433087,-0.22599929103213284,0.28485061492978053,-0.7016651227050993,0.1566036246425382,0.05584806779033437,-0.3621466629594225,-0.10721426848312476,-0.17808532944575733,0.009107995422487388,0.2543313011117382,0.4182139817919274,-0.007254895432031172,0.33408925328191624,0.11419337168884629,0.6501283145424538,0.5386709943293738,-0.09165847537668304
0.40765329988501187,-0.0777009665911817,-0.33616576434262435,-0.32710880313651514,-0.2496415234459649,0.35802628620773547,0.45485548825727407,-0.1529113248152475,0.4792892658693009,-0.16717228309973148,0.06233475539017492,-0.0585220267790139,0.0535797613369967,-0.23388894760702705,0.18913974052549326,0.06025537958063755,0.10678702730257786,0.15994750702355137,0.047849617851439374,-0.5927199358521309,-0.4534904867414138,-0.10523343647934469,0.14192083818941026,0.31307262083869125,-0.3143723876733908,0.5094411660612393,0.28819397546230063,-0.23492921251108484,-0.006658082774925448,-0.5083174363938765,-0.19651680589435838,-0.19428208812542097,0.19319991942555131,-0.27841409209422974,0.22283229968491947,0.32260267296934586
-0.22170529241552067,-0.6851705780484842,-0.20767020410441406,-0.7974219900538919,-0.12149741792530913,0.2765767030805916,-0.08896459189294119,0.1915008818989521,-0.10932146744472597,0.28451539315774727,0.014490124190662115,-0.047913068618447754,0.24399459093981746,-0.06392884561665396,-0.1606753613300415,-0.2341120051659052,-0.38774897931972313,0.032803173857923085,-0.09527338872463846,0.6860119685315456,0.06678875987102577,-0.3719164818292779,-0.20409658114367768,0.2525735875633601,0.22632584050892213,0.21838843933220703,0.07486217581440908,0.46771067663208726,-0.01185798033877888,0.03521596601560713,-0.22378275627187189,-0.022554410467596018,0.6147458635304242,0.5103018220638984,0.2582158810951141,-0.21515371855401288
-0.4580806388492892,0.36801105477590434,-0.46001618634246766,-0.2126905016251597,-0.1283762194292626,-0.2904081668670393,0.08497614042634202,0.14430696517828678,-0.3104617536793195,0.47970913856582653,0.45533299058306775,0.2526685146896457,-0.4359519846993688,0.24556068933101263,-0.3885460398469254,0.5812943795488157,0.3714011803401876,-0.4163571832743176,-0.05577652537722338,0.1377105775768202,0.07023191977948753,0.032243011267134844,0.37665104121519877,-0.1240867117749957,0.2685732544904952,0.016718483032051777,0.37016398406446926,0.49243070898522734,-0.15577967118122296,-0.2811763628119301,-0.422060306820046,0.49530633787124717,-0.31865974932978247,0.1631760448807469,-0.2574301178049858,0.22974245898789664
-0.2453322731868285,0.21586851192747514,0.20632481773527617,-0.10267496854898496,0.10912329292409952,-0.11595005348537717,-0.28026167680342007,-0.03695198625830068,0.3513689429726454,0.23797009937075247,0.09521609455018186,-0.417501430087847,-0.3886546742175828,0.31340059148935984,0.10492259368672822,-0.0013207638156638834,0.2267375766489721,0.2965927530267798,0.0420076536195053,0.1406260984893552,0.45345922312019815,0.6026450338319034,0.689350548931444,0.39461959879826947,0.40891497893294126,0.04080232022115568,-0.1705694388145032,0.24481981873693953,0.34262666680294607,-0.2757827572455418,0.08104919186164967,-0.056750054563087036,0.43249073016277717,0.41456521133874613,-0.22035566535296242,0.1561994008289716
0.10531937535599709,-0.20094618588801627,-0.06127094093971047,0.002791251451926591,-0.5188826553640318,-0.006956228355282541,-0.18909529687108134,-0.10704812672164579,-0.050808327326613736,0.08234663871929934,0.07450466411552806,-0.1615461519536751,-0.2718115342168564,-0.0607173666924819,0.07886050857860377,0.23792710652135646,0.34265020352055003,0.472384650906368,-0.04216236067153015,-0.526542870925472,-0.03178311011296446,0.1864325938503582,-0.004165588580844122,-0.20588666738996808,-0.1928286437019417,-0.20226799524541222,-0.4625048279271137,0.4495393344533784,-0.25050049298613986,-0.42824369647316146,0.4004641985312191,-0.006815090649681336,0.1299981039136927,0.09905007564580265,0.1214739171501368,-0.17129806336146697
