0.5717281140382126,0.6891418478031294,-0.23668361958100465,-0.09178491060317802,0.042318008583602434,-0.1281369922320544
-0.9448136372298516,0.17920560572617494,-1.3471086041555191,1.3776418723082033,0.1284539093826637,-0.5972732368227458
-0.6979845886081756,0.3603597708354155,-1.078441114463319,-0.22322838758000663,-0.5160822372727485,0.07693195642828847
0.7832408742786313,0.34751203341922854,0.6727702353895904,-0.4432821384965241,-0.19381261059015653,-0.09542816487377866
-0.6476120302560101,-0.3636102662720653,-0.24193526835877505,0.7188990520027986,0.715576696792193,0.21264500780437365
0.3263600287923514,0.4045469612306939,-0.03543533574910787,-0.3002293374106722,-0.5318875418724333,-0.5221052249591229
0.104959375060264,0.3092281841410379,-0.33328148056486123,-0.29105350569701877,-0.5136459556357768,-0.046290558581383215
-0.24318066924904405,0.5083414626213661,0.6258268641410627,-0.0474133029640009,0.142029161923228,0.09453719491280822
-0.549553181844597,0.31458608100677177,-0.5230757879676877,0.6516619572662546,-0.3747883449786885,-0.04959618507945064
