0.2791681683952104,0.22522224139694785,-0.057058049879787104,-0.851696679676579,-0.5815947121925441,0.3406451291407069,0.5612497224360576,0.04257206091542336,-0.14319408824757202,-0.07133408577281063,-0.09593570413628669,0.4639631449512779,-0.36566535096792585,0.41162588729623645,0.47352061732024026,0.8124157312430954,-0.2383519470959674,-0.8520075516817873,-0.7849181606159956,0.7025136148072714,0.9228981569581187,0.6570706674767259,-0.07627885949407465,0.41847599790826967
0.5966537468676963,0.10533377859502648,-0.23849370874903966,0.763232342561278,-0.1157205964624347,-0.21991579167133626,0.5229267649261183,0.9520104263042722,-0.5936672979784922,-0.3227631793240858,0.14885260207219345,-0.5191700127321521,-0.5024418341669888,-0.07130661827107755,-0.8485963298684971,1.2356868252315538,-0.25581263344901833,0.8826970949850484,1.0510786145339326,-0.16900547534554075,-0.7763141596529958,0.9099317138683028,-0.41270299941758787,-0.2842735220053254
0.8952861811923628,0.3494754672030754,0.5307943409114904,-0.04414191866809729,0.6267137195989652,-0.05947864448082962,0.0945981296263387,0.296599443108343,-0.05442149697972796,-0.28140609549798457,0.30488278417802167,0.6985471776590336,0.2337534207074634,-0.16021859005759154,0.2847475731573703,0.18903600165411502,0.43894314457088424,0.29638705804217924,-0.033453921013961975,0.05648331246920939,-0.20051985622368648,0.3765432127579756,-0.08241302185774316,-0.14997340998894176
-0.25811583768831875,0.007985946887449429,0.1552417769331163,-0.021007450642043242,-0.3767278760940337,-0.4275570556725253,0.469115235829003,-0.8962222505726744,0.5327082632795805,-0.8844898814922018,-0.21065068073114557,-0.33834588656655556,-0.4153107568193306,0.3286652946677352,0.7800692798719739,-0.9314249326827472,0.0013760676364355706,0.2619762361118835,0.15282709793810356,-0.2825089163587609,-0.015461831933241132,0.830821848185786,0.5120703642775725,-0.1572998559874244
0.4335649277177964,0.6202427966215114,-0.4187541023635967,-0.49364882891834805,0.49980421588565255,0.25779658658743687,0.4045196513995528,-0.25045637182104785,-0.18075102542759572,0.28925828375626805,0.39567667751637287,-0.4043363579600747,1.063070308432042,-0.1152264341140591,-0.7446976646053494,-0.1511560275268871,-0.2598807476599601,-0.638220740767292,0.037639739908315296,-0.18698072457006595,-0.10410358044656862,-0.025884262910139157,0.3738266840485684,-0.3923802275633635
